/*!
 * The following copyright notice may not be removed under any circumstances.
 * 
 * Copyright:
 * Copyright (c) 2010 by Caroline Hadilaksono. All rights reserved.
 * 
 * Manufacturer:
 * Caroline Hadilaksono
 * 
 * Designer:
 * Caroline Hadilaksono
 * 
 * Vendor URL:
 * http://www.theleagueofmoveabletype.com/
 * 
 * License information:
 * http://scripts.sil.org/cms/scripts/page.php?site_id=nrsi&item_id=OFL_web
 */
Cufon.registerFont({"w":604,"face":{"font-family":"collab","font-weight":400,"font-stretch":"normal","units-per-em":"1000","panose-1":"0 0 0 0 0 0 0 0 0 0","ascent":"750","descent":"-250","x-height":"12","bbox":"-36 -842 1004.81 275","underline-thickness":"50","underline-position":"-50","unicode-range":"U+0020-U+007E"},"glyphs":{" ":{"w":260},"\u00a0":{"w":260},"k":{"d":"569,0v-48,-6,-107,12,-135,-16v-75,-76,-142,-168,-220,-242v-11,-11,-28,-15,-46,-10r0,268r-84,0r0,-820r84,0r0,464r100,-73v42,-35,92,-74,119,-121r85,0v-45,95,-149,158,-228,224v68,30,105,97,152,148r110,120v22,22,43,47,63,58","w":553,"k":{"e":14,"c":14,"o":14}},"l":{"d":"167,-820r1,710v3,39,35,49,76,51r-3,71v-106,4,-157,-46,-157,-158r0,-674r83,0","w":278},"m":{"d":"376,-478v-102,0,-158,73,-208,129r0,349r-84,0r0,-550r84,0r0,99v51,-53,108,-111,208,-111v81,0,114,39,124,114v51,-55,109,-112,211,-114v96,-2,126,72,127,171r0,391r-84,0r0,-391v-1,-45,-6,-87,-43,-87v-106,0,-157,70,-208,129r0,349r-84,0r0,-391v-1,-45,-6,-87,-43,-87","w":907},"n":{"d":"408,-478v-113,0,-179,74,-240,131r0,347r-84,0r0,-550r84,0r0,106v61,-55,130,-116,240,-118v96,-2,126,72,127,171r0,391r-84,0r0,-391v-1,-45,-6,-87,-43,-87"},"o":{"d":"293,12v-165,0,-239,-112,-239,-287v0,-174,76,-287,239,-287v163,0,239,114,239,287v0,174,-75,287,-239,287xm293,-56v113,0,155,-95,155,-219v0,-123,-44,-218,-155,-218v-113,0,-155,95,-155,218v0,123,42,219,155,219","w":586,"k":{"t":12,"s":8}},"p":{"d":"337,12v-66,0,-127,-40,-171,-76r0,324r-82,0r0,-810r82,0r0,92v49,-73,182,-143,286,-80v74,44,114,138,116,254v2,171,-74,296,-231,296xm484,-284v-3,-95,-27,-196,-114,-196v-104,0,-162,67,-204,130r0,194v43,40,95,86,171,86v102,0,150,-96,147,-214","w":622},"q":{"d":"456,-105v-51,73,-175,160,-286,93v-74,-45,-114,-138,-116,-254v-2,-171,74,-296,231,-296v66,0,127,29,171,66r0,-54r84,0r0,810r-84,0r0,-365xm138,-266v3,95,27,199,114,199v107,0,160,-79,204,-143r0,-184v-45,-40,-95,-90,-171,-90v-102,0,-150,101,-147,218","w":624},"r":{"d":"311,-482v-81,0,-112,80,-143,138r0,344r-84,0r0,-550r84,0r0,75v37,-100,206,-111,272,-32r-58,56v-16,-16,-39,-31,-71,-31","w":436,"k":{"e":5,"c":5,"o":5,"s":4}},"s":{"d":"367,-446v-46,-58,-217,-74,-211,41v3,59,67,66,114,82v89,30,180,54,183,172v4,183,-264,200,-367,100v-15,-15,-30,-30,-42,-49r58,-47v26,51,89,83,159,89v94,8,150,-110,69,-156v-95,-54,-251,-45,-257,-191v-7,-183,255,-192,348,-93","w":502},"t":{"d":"228,12v-91,0,-114,-77,-114,-172r0,-322r-70,0r0,-70r70,0r0,-198r84,0r0,198r132,0r0,70r-132,0r0,322v1,48,3,99,52,99v39,-1,60,-18,83,-39r51,49v-40,42,-82,63,-156,63","w":398},"u":{"d":"153,-159v1,45,6,90,43,90v113,0,180,-75,240,-133r0,-348r84,0r0,550r-84,0r0,-97v-60,54,-132,107,-240,109v-96,2,-126,-71,-127,-171r0,-391r84,0r0,391"},"v":{"d":"112,-550r143,425r3,19r0,0v29,-135,82,-277,130,-390v13,-29,24,-47,31,-54r91,0v-101,152,-147,354,-212,550r-73,0r-210,-550r97,0","w":522,"k":{"o":8,"c":8,"e":8,"a":8,"l":5,"I":5,"|":5,"i":5}},"w":{"d":"184,0r-159,-550r91,0r109,410r3,21v34,-150,82,-286,120,-431r72,0r121,431v32,-141,71,-280,115,-407v6,-14,11,-22,14,-24r82,0v-72,163,-117,370,-174,550r-71,0r-123,-424r-121,424r-79,0","w":777,"k":{"o":8,"c":8,"e":8,"a":8,"l":5,"I":5,"|":5,"i":5}},"x":{"d":"160,-550r136,199r87,-125v20,-27,42,-59,61,-74r104,0v-76,78,-139,179,-205,268r200,282r-106,0r-142,-212r-133,186v-13,16,-21,25,-24,26r-104,0v78,-80,146,-189,214,-281r-194,-269r106,0","w":582},"y":{"d":"105,-550r149,386r105,-250v22,-49,45,-106,67,-136r95,0v-45,49,-74,135,-103,204r-158,385v-43,110,-101,230,-244,236r-21,-73v151,-9,159,-145,213,-252r-192,-500r89,0","w":513,"k":{"o":8,"c":8,"e":8,"a":8,"l":5,"I":5,"|":5,"i":5}},"z":{"d":"406,-71v27,-1,57,-3,71,-17r0,71v-15,13,-45,17,-72,17r-356,0r0,-71r310,-409r-310,0r0,-70r411,0r0,70r-310,409r256,0","w":516},"d":{"d":"463,-93v-56,70,-186,140,-292,79v-75,-43,-115,-136,-117,-252v-2,-171,76,-296,233,-296v71,0,124,36,171,76r0,-334r84,0r0,688v0,47,19,79,58,92r-53,54v-49,-17,-77,-52,-84,-107xm287,-480v-168,-8,-195,313,-80,389v102,68,209,-40,251,-115r0,-183v-45,-43,-101,-87,-171,-91","w":639},".":{"d":"104,7v-34,0,-60,-26,-60,-60v0,-33,27,-57,60,-57v33,0,57,24,57,57v0,34,-24,60,-57,60","w":205},",":{"d":"99,7v-34,1,-60,-23,-60,-56v-1,-31,25,-56,56,-55v77,3,68,108,42,168v-13,29,-29,58,-50,84r-46,-25v26,-34,50,-67,58,-116","w":200},":":{"d":"129,7v-34,0,-60,-26,-60,-60v0,-33,27,-57,60,-57v33,0,57,24,57,57v0,34,-24,60,-57,60xm129,-353v-34,0,-60,-26,-60,-60v0,-33,27,-57,60,-57v33,0,57,24,57,57v0,34,-24,60,-57,60","w":255},";":{"d":"134,7v-34,1,-60,-23,-60,-56v-1,-31,25,-56,56,-55v77,3,68,108,42,168v-13,29,-29,58,-50,84r-46,-25v26,-34,50,-67,58,-116xm129,-353v-34,0,-60,-26,-60,-60v0,-33,27,-57,60,-57v33,0,57,24,57,57v0,34,-24,60,-57,60","w":260},"?":{"d":"229,-165v-36,-33,-72,-62,-72,-129v0,-124,129,-163,185,-248v18,-28,41,-58,41,-98v0,-75,-44,-113,-124,-110v-86,3,-131,62,-166,120r-53,-50v47,-70,107,-134,219,-140v158,-8,245,113,194,255v-35,99,-131,154,-195,225v-46,51,-12,96,29,127xm250,7v-31,0,-56,-25,-56,-56v0,-31,25,-55,56,-55v31,0,55,24,55,55v0,31,-24,56,-55,56","w":502},"-":{"d":"290,-240r-236,0r0,-70r236,0r0,70","w":344},"Z":{"d":"156,-82v136,-5,294,14,406,-16r0,83v-29,13,-76,15,-118,15r-395,0r0,-82r385,-606r-375,0r0,-82r482,0r0,80","w":611},"D":{"d":"653,-380v-4,224,-98,380,-314,380r-255,0r0,-757v72,-7,131,-18,207,-18v252,-2,366,132,362,395xm339,-76v159,-10,224,-134,226,-304v3,-199,-71,-320,-272,-320v-48,0,-90,6,-121,11r0,613r167,0","w":712},"A":{"d":"400,-770r284,770r-93,0r-97,-262r-281,0r-96,262r-93,0r284,-770r92,0xm354,-672v-1,16,-3,36,-7,48r-106,286r225,0r-106,-286v-4,-15,-6,-28,-6,-48","w":708,"k":{"T":50}},"B":{"d":"84,-757v62,-6,136,-18,215,-18v155,0,243,66,243,217v0,79,-32,127,-78,158v67,29,110,86,112,173v5,164,-97,227,-264,227r-228,0r0,-757xm490,-227v-4,-85,-67,-124,-165,-124r-153,0r0,275r140,0v117,1,183,-41,178,-151xm172,-427v143,2,285,10,285,-133v0,-153,-150,-152,-285,-130r0,263","w":635},"G":{"d":"398,-385v78,14,176,4,265,7r0,231v-13,112,-123,162,-241,162v-245,0,-359,-145,-363,-383v-3,-210,90,-340,238,-396v150,-56,295,8,360,97r-59,58v-46,-72,-154,-130,-265,-81v-111,49,-183,156,-183,322v0,193,113,338,318,296v48,-10,101,-35,111,-84r0,-144v-63,-3,-135,9,-181,-13r0,-72","w":748},"_":{"d":"605,64r-551,0r0,-64r551,0r0,64","w":659},"C":{"d":"535,-624v-40,-61,-156,-100,-246,-56v-145,70,-183,385,-75,528v48,63,144,112,242,76v48,-18,85,-43,111,-77r55,55v-57,60,-130,122,-257,113v-202,-15,-306,-165,-306,-378v0,-193,69,-331,195,-395v124,-63,290,-9,339,78","w":642},"^":{"d":"362,-550r251,550r-72,0r-215,-471r-215,471r-72,0r251,-550r72,0","w":652},"E":{"d":"416,-76r105,-5r0,81r-437,0r0,-770r318,0r105,-5r0,80r-335,0r0,258r285,0r0,76r-285,0r0,285r244,0","w":560},"F":{"d":"402,-770r105,-5r0,79r-335,0r0,259r285,0r0,76r-285,0r0,361r-88,0r0,-770r318,0","w":538,"k":{"e":7,"c":7,"a":9,"o":7}},"H":{"d":"84,0r0,-770r88,0r0,334r396,0r0,-334r88,0r0,770r-88,0r0,-360r-396,0r0,360r-88,0","w":740},"I":{"d":"84,0r0,-770r88,0r0,770r-88,0","w":256},"J":{"d":"-11,180v72,-21,124,-70,124,-163r0,-787r88,0r0,787v0,138,-79,207,-180,242","w":284},"O":{"d":"59,-384v0,-242,96,-401,321,-401v220,0,316,160,316,399v0,244,-91,401,-319,401v-223,0,-318,-158,-318,-399xm608,-384v0,-184,-61,-326,-228,-326v-167,0,-233,140,-233,324v0,185,64,325,230,325v169,0,231,-138,231,-323","w":755,"k":{"x":10}},"K":{"d":"172,-770r0,341r266,-341r109,0r-282,360v115,23,157,139,211,225r87,139v12,19,28,36,34,46r-103,0v-68,-88,-120,-203,-186,-294v-29,-39,-71,-57,-136,-44r0,338r-88,0r0,-770r88,0","w":612,"k":{"e":5,"c":5,"y":8,"w":8,"v":8,"o":5}},"L":{"d":"416,-76r105,-5r0,81r-437,0r0,-770r88,0r0,694r244,0","w":555,"k":{"Y":90}},"M":{"d":"84,0r0,-770r88,0r252,667r253,-667r88,0r0,770r-88,0r1,-557r-4,17r-207,540r-85,0r-207,-540r-4,-16r1,556r-88,0","w":849},"N":{"d":"84,0r0,-770r88,1r379,619r-1,-620r88,0r0,770r-88,-1r-379,-621r1,622r-88,0","w":722},"T":{"d":"7,-770r542,0r0,76r-229,0r0,694r-88,0r0,-694r-225,0r0,-76","w":556,"k":{"e":30,"c":30,"a":35,"o":30}},"Q":{"d":"59,-384v0,-242,96,-401,321,-401v220,0,316,160,316,399v0,226,-80,370,-270,398v24,28,55,50,108,49v34,0,66,-7,94,-16r22,72v-82,31,-211,14,-262,-29v-26,-22,-50,-48,-62,-77v-184,-30,-267,-173,-267,-395xm608,-384v0,-184,-61,-326,-228,-326v-167,0,-233,140,-233,324v0,185,64,325,230,325v169,0,231,-138,231,-323","w":755},"P":{"d":"329,-240v-69,1,-115,-25,-157,-52r0,292r-88,0r0,-770r88,0r0,30v43,-24,100,-47,164,-45v150,4,229,101,232,253v4,178,-75,289,-239,292xm333,-320v105,0,153,-88,150,-212v-3,-111,-65,-176,-176,-176v-56,0,-98,24,-135,51r0,272v41,36,91,65,161,65","w":617,"k":{"e":8,"c":8,"a":8,"o":8}},"R":{"d":"554,-565v0,136,-66,211,-174,236v100,88,159,242,263,327r0,2r-107,0v-90,-79,-141,-214,-232,-292v-17,-15,-34,-25,-51,-30r-81,0r0,322r-88,0r0,-770r88,0r0,31v49,-31,97,-45,169,-46v132,-2,213,90,213,220xm327,-706v-67,1,-110,19,-155,49r0,260r148,0v98,-4,148,-62,148,-168v1,-85,-55,-142,-141,-141","w":653,"k":{"e":5,"c":5,"a":5,"o":5}},"S":{"d":"569,-208v-3,148,-101,223,-248,223v-136,0,-208,-57,-267,-151r62,-55v48,75,100,121,207,126v115,6,192,-95,145,-202v-95,-134,-387,-66,-385,-305v1,-142,88,-213,222,-213v106,0,164,36,215,96r-60,51v-48,-75,-226,-98,-274,-3v-14,28,-27,88,-5,118v66,89,229,85,313,156v42,36,77,82,75,159","w":618,"k":{"e":5,"c":5,"o":5}},"U":{"d":"599,-239v-1,168,-94,251,-257,251v-162,0,-258,-83,-258,-251r0,-531r88,0r0,529v-1,116,62,176,170,176v104,0,169,-61,169,-174r0,-531r88,0r0,531","w":683},"{":{"d":"175,-678v3,-78,26,-152,108,-152v48,0,85,16,116,33r-28,70v-24,-11,-50,-22,-88,-19v-24,2,-24,41,-24,68r0,299v-5,45,-28,77,-64,97v36,20,64,50,64,97r0,299v2,27,1,63,24,68v38,0,65,-6,88,-19r28,70v-30,19,-67,33,-116,33v-83,0,-108,-74,-108,-152r0,-298v-6,-48,-38,-73,-96,-73r0,-50v58,0,96,-24,96,-73r0,-298","w":468},"V":{"d":"296,0r-274,-770r93,0r227,646r227,-646r93,0r-274,770r-92,0","w":684,"k":{"m":15,"n":15,"p":15,"r":15,"o":48,"c":48,"e":48,"a":48,"q":40,"d":40,"u":20,"A":60}},"W":{"d":"243,0r-218,-770r90,0r164,622r162,-622r93,0r162,624r164,-624r91,0r-218,770r-73,0r-170,-594r-3,-18r-3,18r-168,594r-73,0","w":976,"k":{"m":15,"n":15,"p":15,"r":15,"o":48,"c":48,"e":48,"a":48,"q":40,"d":40,"u":20,"A":60}},"X":{"d":"626,-770r-245,386r245,384r-107,0r-192,-299r-190,299r-108,0r244,-384r-244,-386r105,0r193,301r192,-301r107,0","w":655,"k":{"e":40,"c":40,"a":35,"o":40}},"Y":{"d":"606,-770r-254,401r0,369r-87,0r0,-369r-256,-401r103,0r197,309r198,-309r99,0","w":615,"k":{"o":60,"c":60,"e":60,"a":60,"q":50,"d":50}},"0":{"d":"305,15v-167,0,-246,-115,-246,-294v0,-179,78,-294,246,-294v167,0,246,115,246,294v0,179,-78,294,-246,294xm305,-59v118,0,162,-93,162,-220v0,-128,-44,-220,-162,-220v-118,0,-162,93,-162,220v0,128,44,220,162,220","w":610},"1":{"d":"192,0r0,-470r-89,75r-54,-62r143,-108r89,0r0,565r-89,0","w":363},"2":{"d":"340,-333v52,-73,8,-173,-83,-167v-76,5,-115,49,-145,99r-54,-55v40,-62,98,-117,200,-121v138,-5,230,112,176,243v-47,114,-153,192,-250,258r298,0r0,76r-433,0r0,-64r82,-62v72,-58,155,-131,209,-207","w":536},"3":{"d":"231,-497v-65,1,-103,31,-129,69r-47,-46v34,-54,86,-102,175,-102v99,0,168,59,168,157v0,72,-48,108,-88,143v99,18,175,79,175,188v0,148,-84,232,-191,274v-98,39,-205,6,-260,-43r53,-50v25,20,63,35,112,31v120,-9,204,-83,204,-212v0,-105,-112,-143,-217,-108r-45,12r0,-68v79,-33,168,-65,175,-167v3,-46,-41,-78,-85,-78","w":543},"4":{"d":"592,0r-105,0r0,204r-89,0r0,-204r-364,0r0,-47r392,-519r61,0r0,490r105,0r0,76xm398,-76r0,-336r-240,325v-4,5,-11,9,-14,15v76,-10,171,-1,254,-4","w":621},"5":{"d":"289,-243v-55,0,-97,10,-133,36r-66,0r0,-358r386,0r0,75r-298,0r0,200v32,-14,62,-27,111,-26v151,3,238,78,244,225v9,215,-135,338,-343,282v-52,-14,-89,-40,-121,-73r48,-59v40,35,88,71,161,71v123,0,174,-89,174,-219v0,-93,-63,-154,-163,-154","w":596},"6":{"d":"142,-331v47,-67,95,-130,198,-130v139,0,209,81,209,224v0,143,-80,252,-233,252v-182,0,-255,-154,-253,-359v2,-176,65,-313,169,-387v89,-64,228,-21,286,31r-53,55v-38,-34,-127,-59,-184,-24v-97,59,-131,191,-139,338xm153,-225v18,94,65,167,163,167v102,0,145,-83,150,-179v6,-108,-66,-176,-170,-143v-70,22,-110,84,-143,155","w":608},"7":{"d":"45,-566r432,0r0,59r-145,285r-124,220v-35,57,-71,113,-108,158v-15,18,-28,29,-39,34r-57,-53v151,-166,258,-411,371,-620r-330,0r0,-83","w":506},"9":{"d":"466,-219v-47,67,-96,130,-198,130v-139,0,-209,-81,-209,-224v0,-143,80,-252,233,-252v182,0,255,154,253,359v-2,176,-65,313,-170,387v-90,63,-227,21,-285,-31r53,-55v37,36,126,58,183,24v98,-58,132,-191,140,-338xm455,-325v-18,-94,-65,-167,-163,-167v-102,0,-145,83,-150,179v-6,108,66,176,170,143v71,-22,109,-85,143,-155","w":608},"8":{"d":"290,-765v117,0,209,46,209,164v0,110,-85,166,-153,213v73,57,172,106,172,224v0,132,-98,179,-228,179v-126,0,-226,-48,-226,-179v0,-114,82,-176,153,-225v-62,-53,-134,-105,-134,-212v0,-118,90,-164,207,-164xm290,-55v76,0,152,-27,145,-109v-9,-95,-103,-133,-163,-186v-60,40,-122,94,-127,186v-4,81,69,109,145,109xm290,-700v-89,-4,-151,61,-115,146v22,52,69,88,112,123v58,-33,128,-82,128,-170v0,-73,-54,-96,-125,-99","w":582},"&":{"d":"550,-96v-62,78,-186,128,-323,92v-91,-24,-168,-81,-168,-196v0,-125,94,-172,177,-222v-47,-57,-103,-102,-103,-184v0,-120,94,-164,212,-164v117,0,208,45,208,164v0,114,-114,146,-194,194r184,197v35,-53,55,-107,86,-166r65,32r-48,98v-16,32,-33,62,-50,91v36,34,70,67,103,85v43,5,51,-15,71,-56r60,35v-28,57,-52,115,-131,101v-53,-9,-102,-58,-149,-101xm143,-200v0,117,173,152,274,104v29,-14,55,-33,77,-55r-211,-222v-65,39,-140,76,-140,173xm312,-462v62,-37,157,-59,157,-144v0,-74,-53,-102,-124,-102v-72,0,-128,27,-128,102v0,59,56,98,95,144","w":884},"`":{"d":"158,-756r131,146r-69,0r-166,-146r104,0","w":343},"$":{"d":"569,-205v0,140,-92,206,-219,221r0,51r-68,0r0,-53v-112,-15,-175,-64,-228,-148r62,-55v40,65,84,108,166,123r0,-299v-101,-34,-201,-73,-199,-208v2,-135,80,-198,199,-212r0,-57r68,0r0,59v79,10,127,43,170,93r-60,51v-30,-30,-60,-55,-110,-63r0,266v111,38,219,84,219,231xm350,-64v114,2,177,-152,94,-230v-24,-23,-59,-37,-94,-50r0,280xm282,-704v-81,6,-136,86,-106,172v14,41,63,57,106,74r0,-246","w":618},"}":{"d":"209,-678v-1,-27,-1,-63,-24,-68v-37,0,-66,7,-88,19r-28,-70v31,-17,68,-33,116,-33v82,0,108,74,108,152r0,298v6,49,37,73,96,73r0,50v-58,-1,-96,25,-96,72r0,299v2,95,-48,175,-154,147v-28,-7,-50,-15,-70,-28r28,-70v21,14,51,19,88,19v23,-5,24,-41,24,-68r0,-298v5,-46,28,-77,63,-98v-35,-20,-63,-50,-63,-97r0,-299","w":468},"|":{"d":"84,260r0,-1090r76,0r0,1090r-76,0","w":244},"@":{"d":"621,-108v-52,43,-108,87,-201,89v-156,3,-155,-218,-108,-338v33,-85,90,-152,159,-195v88,-54,197,-20,235,53r14,-59r78,18r-102,458v136,-19,234,-106,230,-266v-4,-157,-95,-260,-214,-312v-95,-41,-224,-41,-318,6v-139,70,-260,198,-260,393v0,187,119,295,260,350v50,19,104,28,159,28v157,2,232,-55,324,-129r50,62v-107,85,-193,151,-374,147v-225,-4,-381,-117,-459,-275v-55,-113,-54,-257,0,-374v78,-170,226,-318,459,-318v220,0,355,115,423,270v52,120,30,283,-37,358v-60,68,-142,117,-256,123v-57,3,-72,-33,-62,-89xm686,-407v-26,-58,-49,-107,-125,-107v-96,0,-146,97,-177,182v-21,57,-27,158,-6,214v18,49,80,36,122,14v60,-31,113,-85,149,-135","w":1060},"\/":{"d":"333,-770r-231,770r-83,0r231,-770r83,0","w":352},"!":{"d":"109,-184r-13,-636r99,0r-13,636r-73,0xm147,7v-35,0,-63,-28,-63,-63v0,-34,28,-61,63,-61v34,0,61,27,61,61v0,35,-27,63,-61,63","w":292},"(":{"d":"307,-700v-133,66,-164,256,-164,446v0,160,30,315,106,405v17,19,36,33,58,40r-6,70v-177,-38,-216,-239,-237,-428v-22,-192,17,-368,89,-494v31,-54,76,-102,148,-109","w":336},"\\":{"d":"107,-770r231,770r-83,0r-231,-770r83,0","w":362},")":{"d":"35,-770v179,36,215,241,237,429v22,192,-17,366,-89,492v-31,54,-76,102,-148,110r-6,-70v134,-64,164,-256,164,-445v0,-160,-30,-315,-106,-405v-17,-19,-36,-33,-58,-41","w":336},"\"":{"d":"275,-658v-34,1,-60,-23,-60,-56v-1,-31,25,-56,56,-55v77,3,68,109,42,169v-13,29,-29,57,-50,83r-46,-25v26,-34,50,-67,58,-116xm104,-658v-34,1,-60,-23,-60,-56v-1,-31,25,-56,56,-55v77,3,68,109,42,169v-13,29,-29,57,-50,83r-46,-25v26,-34,50,-67,58,-116","w":376},"~":{"d":"54,-349v55,-50,177,-65,269,-34v75,25,192,22,241,-20r32,56v-60,51,-187,62,-282,30v-72,-24,-180,-17,-224,21","w":650},"'":{"d":"104,-659v-34,1,-60,-23,-60,-56v-1,-31,25,-56,56,-55v77,3,68,108,42,168v-13,29,-29,58,-50,84r-46,-25v26,-34,50,-67,58,-116","w":205},"+":{"d":"285,0r0,-242r-236,0r0,-67r236,0r0,-241r67,0r0,241r247,0r0,67r-247,0r0,242r-67,0","w":648},"]":{"d":"69,200r120,0r0,-910r-120,0r0,-60r204,0r0,1030r-204,0r0,-60","w":357},"%":{"d":"249,-360v-124,0,-190,-78,-190,-210v0,-132,65,-209,189,-209v125,0,190,77,190,211v-1,132,-64,208,-189,208xm836,-814r-580,861r-96,0r580,-861r96,0xm353,-568v0,-87,-23,-145,-105,-145v-79,0,-104,57,-104,143v0,86,24,144,105,144v80,0,104,-57,104,-142xm753,15v-124,0,-190,-78,-190,-210v0,-132,65,-209,189,-209v125,0,190,77,190,211v-1,132,-64,208,-189,208xm857,-193v0,-87,-23,-145,-105,-145v-79,0,-104,57,-104,143v0,86,24,144,105,144v80,0,104,-57,104,-142","w":1001},"=":{"d":"605,-328r-551,0r0,-67r551,0r0,67xm605,-168r-551,0r0,-67r551,0r0,67","w":659},"[":{"d":"288,-710r-120,0r0,910r120,0r0,60r-204,0r0,-1030r204,0r0,60","w":357},"#":{"d":"111,-560r171,0r52,-210r74,0r-52,210r176,0r52,-210r74,0r-52,210r178,0r-17,72r-179,0r-43,177r184,0r-17,72r-185,0r-58,239r-74,0r58,-239r-176,0r-58,239r-74,0r58,-239r-164,0r17,-72r165,0r43,-177r-170,0xm295,-311r176,0r43,-177r-176,0","w":823},"<":{"d":"74,-316r555,-251r0,72r-476,215r476,215r0,72r-555,-251r0,-72","w":698},">":{"d":"624,-244r-555,251r0,-72r475,-215r-475,-215r0,-72r555,251r0,72","w":698},"*":{"d":"73,-632r202,81r-2,-219r70,0r-2,219r202,-81r25,65r-207,81r144,160r-58,49r-139,-172r-138,172r-60,-49r144,-160r-206,-81","w":616},"a":{"d":"391,-341v1,-69,6,-143,-62,-143v-89,0,-155,45,-219,77r-33,-68v73,-40,155,-87,264,-87v94,0,133,69,133,158r0,296v2,37,24,55,54,70r-54,50v-43,-16,-65,-45,-77,-86v-43,45,-105,86,-188,86v-105,0,-179,-83,-148,-204v31,-121,200,-124,330,-149xm136,-138v1,49,28,78,70,80v86,4,144,-45,185,-93r0,-118v-96,24,-258,6,-255,131","w":562},"b":{"d":"167,-479v43,-47,96,-85,186,-83v155,4,214,123,217,278v4,171,-74,296,-231,296v-67,0,-128,-29,-172,-66r0,54r-83,0r0,-820r83,0r0,341xm486,-284v-3,-102,-35,-196,-133,-196v-94,0,-149,47,-186,104r0,230v39,40,106,79,172,79v102,0,150,-100,147,-217","w":624},"c":{"d":"54,-265v0,-172,79,-297,236,-297v83,0,133,40,169,88r-53,50v-24,-34,-58,-63,-118,-63v-195,0,-206,425,-5,425v66,0,96,-29,134,-63r52,50v-51,48,-94,90,-186,87v-154,-6,-229,-119,-229,-277","w":508},"g":{"d":"295,-500v-72,0,-132,37,-134,112v-2,89,51,127,134,127v80,0,133,-42,133,-127v0,-75,-61,-112,-133,-112xm143,-57v-26,-12,-52,-28,-51,-65v2,-45,40,-78,71,-104v-49,-30,-88,-78,-85,-162v4,-119,102,-176,217,-176v21,0,43,3,67,9v45,-43,132,-76,211,-49r-14,70v-39,-11,-91,-6,-127,10v41,27,79,69,79,136v0,153,-125,206,-276,186v-25,18,-57,44,-59,80v27,10,83,6,120,8v135,11,284,24,284,164v0,155,-116,225,-281,225v-102,0,-179,-45,-220,-109v-13,-21,-20,-44,-20,-68v-1,-83,36,-121,84,-155xm141,98v6,72,80,104,158,104v114,0,191,-46,198,-152v-17,-101,-161,-85,-274,-91v-48,27,-88,61,-82,139","w":613},"e":{"d":"294,12v-201,2,-279,-201,-224,-394v28,-99,97,-180,220,-180v162,0,225,116,222,283r-375,0v-2,124,39,219,157,219v87,0,126,-42,170,-97r51,49v-58,69,-108,119,-221,120xm427,-353v-9,-88,-87,-168,-187,-127v-49,20,-76,71,-92,127r279,0","w":577,"k":{"a":4}},"f":{"d":"258,-755v-96,-4,-67,116,-72,205r162,0r0,70r-162,0r0,480r-83,0r0,-480r-71,0r0,-70r71,0v-8,-151,8,-280,155,-275v71,2,127,35,174,64r-51,51v-36,-19,-73,-43,-123,-45","w":393,"k":{"e":10,"c":10,"a":5,"o":10}},"j":{"d":"-36,196v55,-17,79,-82,79,-153r0,-593r83,0r0,593v-3,116,-56,196,-137,232xm85,-667v-30,1,-53,-22,-52,-52v0,-29,22,-51,52,-51v29,0,51,22,51,51v0,30,-22,52,-51,52","w":220},"h":{"d":"408,-478v-113,0,-181,74,-240,131r0,347r-84,0r0,-820r84,0r0,376v61,-55,130,-116,240,-118v96,-2,126,72,127,171r0,391r-84,0r0,-391v-1,-45,-6,-87,-43,-87"},"i":{"d":"177,-550r0,550r-83,0r0,-550r83,0xm136,-667v-30,1,-53,-22,-52,-52v0,-29,22,-51,52,-51v29,0,51,22,51,51v0,30,-22,52,-51,52","w":271}}});
